digraph Tree {
node [shape=box] ;
0 [label="recipe <= 0.5\ngini = 0.5\nsamples = 7395\nvalue = [3599, 3796]"] ;
1 [label="image_ratio <= 0.379\ngini = 0.496\nsamples = 6461\nvalue = [3517, 2944]"] ;
0 -> 1 [labeldistance=2.5, labelangle=45, headlabel="True"] ;
2 [label="html_ratio <= 0.271\ngini = 0.499\nsamples = 5422\nvalue = [2799, 2623]"] ;
1 -> 2 ;
3 [label="html_ratio <= 0.159\ngini = 0.5\nsamples = 4235\nvalue = [2123, 2112]"] ;
2 -> 3 ;
4 [label="gini = 0.446\nsamples = 134\nvalue = [89, 45]"] ;
3 -> 4 ;
5 [label="gini = 0.5\nsamples = 4101\nvalue = [2034, 2067]"] ;
3 -> 5 ;
6 [label="image_ratio <= 0.095\ngini = 0.49\nsamples = 1187\nvalue = [676, 511]"] ;
2 -> 6 ;
7 [label="gini = 0.495\nsamples = 1019\nvalue = [561, 458]"] ;
6 -> 7 ;
8 [label="gini = 0.432\nsamples = 168\nvalue = [115, 53]"] ;
6 -> 8 ;
9 [label="html_ratio <= 0.207\ngini = 0.427\nsamples = 1039\nvalue = [718, 321]"] ;
1 -> 9 ;
10 [label="image_ratio <= 0.487\ngini = 0.468\nsamples = 594\nvalue = [372, 222]"] ;
9 -> 10 ;
11 [label="gini = 0.499\nsamples = 100\nvalue = [48, 52]"] ;
10 -> 11 ;
12 [label="gini = 0.451\nsamples = 494\nvalue = [324, 170]"] ;
10 -> 12 ;
13 [label="image_ratio <= 1.268\ngini = 0.346\nsamples = 445\nvalue = [346, 99]"] ;
9 -> 13 ;
14 [label="gini = 0.371\nsamples = 370\nvalue = [279, 91]"] ;
13 -> 14 ;
15 [label="gini = 0.191\nsamples = 75\nvalue = [67, 8]"] ;
13 -> 15 ;
16 [label="html_ratio <= 0.292\ngini = 0.16\nsamples = 934\nvalue = [82, 852]"] ;
0 -> 16 [labeldistance=2.5, labelangle=-45, headlabel="False"] ;
17 [label="html_ratio <= 0.194\ngini = 0.145\nsamples = 877\nvalue = [69, 808]"] ;
16 -> 17 ;
18 [label="image_ratio <= -0.5\ngini = 0.066\nsamples = 264\nvalue = [9, 255]"] ;
17 -> 18 ;
19 [label="gini = 0.5\nsamples = 2\nvalue = [1, 1]"] ;
18 -> 19 ;
20 [label="gini = 0.059\nsamples = 262\nvalue = [8, 254]"] ;
18 -> 20 ;
21 [label="html_ratio <= 0.195\ngini = 0.177\nsamples = 613\nvalue = [60, 553]"] ;
17 -> 21 ;
22 [label="gini = 0.0\nsamples = 1\nvalue = [1, 0]"] ;
21 -> 22 ;
23 [label="gini = 0.174\nsamples = 612\nvalue = [59, 553]"] ;
21 -> 23 ;
24 [label="image_ratio <= 0.169\ngini = 0.352\nsamples = 57\nvalue = [13, 44]"] ;
16 -> 24 ;
25 [label="html_ratio <= 0.441\ngini = 0.291\nsamples = 51\nvalue = [9, 42]"] ;
24 -> 25 ;
26 [label="gini = 0.249\nsamples = 48\nvalue = [7, 41]"] ;
25 -> 26 ;
27 [label="gini = 0.444\nsamples = 3\nvalue = [2, 1]"] ;
25 -> 27 ;
28 [label="image_ratio <= 0.364\ngini = 0.444\nsamples = 6\nvalue = [4, 2]"] ;
24 -> 28 ;
29 [label="gini = 0.0\nsamples = 2\nvalue = [2, 0]"] ;
28 -> 29 ;
30 [label="gini = 0.5\nsamples = 4\nvalue = [2, 2]"] ;
28 -> 30 ;
}